<?xml version="1.0"?>
<opencv_storage>
<!-- Created using Computer Vision System Toolbox(tm) for MATLAB(R) -->
<!-- Version 9.5.0.944444 (R2018b) -->
<!-- Compatible with OpenCV 3.4 -->
<cascade>
  <stageType>BOOST</stageType>
  <featureType>LBP</featureType>
  <height>32</height>
  <width>45</width>
  <stageParams>
    <boostType>GAB</boostType>
    <minHitRate>9.9500000476837158e-01</minHitRate>
    <maxFalseAlarm>2.9999999329447746e-02</maxFalseAlarm>
    <weightTrimRate>9.4999999999999996e-01</weightTrimRate>
    <maxDepth>1</maxDepth>
    <maxWeakCount>100</maxWeakCount></stageParams>
  <featureParams>
    <maxCatCount>256</maxCatCount>
    <featSize>1</featSize></featureParams>
  <stageNum>10</stageNum>
  <stages>
    <!-- stage 0 -->
    <_>
      <maxWeakCount>11</maxWeakCount>
      <stageThreshold>-2.5341236591339111e-01</stageThreshold>
      <weakClassifiers>
        <_>
          <internalNodes>
            0 -1 73 -15409768 -536881153 -1858767079 -140568259
            -68494933 -2125175 -376377429 -1078309</internalNodes>
          <leafValues>
            -7.7478826045989990e-01 6.2554115056991577e-01</leafValues></_>
        <_>
          <internalNodes>
            0 -1 0 -184492584 -553071792 -1861168163 458038168
            -629081860 -1079665528 -1199521793 -1693934712</internalNodes>
          <leafValues>
            -7.1667379140853882e-01 5.3913754224777222e-01</leafValues></_>
        <_>
          <internalNodes>
            0 -1 22 603979984 487257681 25205755 533301335 -1151280897
            -553505813 -1425489921 207290555</internalNodes>
          <leafValues>
            -7.2958856821060181e-01 4.5498639345169067e-01</leafValues></_>
        <_>
          <internalNodes>
            0 -1 113 -144744712 -538982953 -744950927 -543991313
            -242942036 -611731325 -74391624 -1114506305</internalNodes>
          <leafValues>
            -6.3122367858886719e-01 5.2072113752365112e-01</leafValues></_>
        <_>
          <internalNodes>
            0 -1 120 -39959296 -1208528083 -1276807876 -1104192020
            -91781681 2108398015 -402680594 -1292386308</internalNodes>
          <leafValues>
            -6.6461980342864990e-01 4.8828411102294922e-01</leafValues></_>
        <_>
          <internalNodes>
            0 -1 100 924847676 -21069859 1002681071 -571685094
            -629547555 -1107642881 -67430914 -1382449665</internalNodes>
          <leafValues>
            -5.8852857351303101e-01 5.0931763648986816e-01</leafValues></_>
        <_>
          <internalNodes>
            0 -1 41 -545210888 -14886575 -771730467 1066768786
            -133644100 -271662840 -2113360983 1510059778</internalNodes>
          <leafValues>
            -6.2908959388732910e-01 4.7352096438407898e-01</leafValues></_>
        <_>
          <internalNodes>
            0 -1 99 315701248 -16562217 1167065543 70989001 2014857387
            -352251101 -789974274 -1659778327</internalNodes>
          <leafValues>
            -6.0153543949127197e-01 4.9533131718635559e-01</leafValues></_>
        <_>
          <internalNodes>
            0 -1 125 732432145 1789891512 -545292295 1035794173
            1610513621 -272629897 -302084611 -290403096</internalNodes>
          <leafValues>
            -5.0043851137161255e-01 5.7189756631851196e-01</leafValues></_>
        <_>
          <internalNodes>
            0 -1 98 1049686456 -1483157144 1892533621 -1755580207
            -1417485345 -658864757 -2000774999 -2115710591</internalNodes>
          <leafValues>
            -5.9469670057296753e-01 5.2983689308166504e-01</leafValues></_>
        <_>
          <internalNodes>
            0 -1 133 574432545 -1302742533 -1777512009 2107495741
            752813605 -52067513 1606751460 -1662866876</internalNodes>
          <leafValues>
            -5.5605536699295044e-01 5.1982295513153076e-01</leafValues></_></weakClassifiers></_>
    <!-- stage 1 -->
    <_>
      <maxWeakCount>17</maxWeakCount>
      <stageThreshold>-2.5842869654297829e-02</stageThreshold>
      <weakClassifiers>
        <_>
          <internalNodes>
            0 -1 130 -2132207 -679742593 -441911413 -69222433 -17347323
            1810592667 -682624481 -79691777</internalNodes>
          <leafValues>
            -6.8756639957427979e-01 3.0219256877899170e-01</leafValues></_>
        <_>
          <internalNodes>
            0 -1 131 -25168316 -1252263013 -548629648 -443554001
            -144836032 838524935 -209063868 -1030815785</internalNodes>
          <leafValues>
            -6.4181065559387207e-01 2.9337722063064575e-01</leafValues></_>
        <_>
          <internalNodes>
            0 -1 156 -270534129 -335570193 -53229662 -487854401
            -480946432 2081397568 -495293116 -420484353</internalNodes>
          <leafValues>
            -4.6251568198204041e-01 3.9861333370208740e-01</leafValues></_>
        <_>
          <internalNodes>
            0 -1 140 -67109077 706468343 -691601556 685693405
            -1347682809 1934483031 -590682303 -452984833</internalNodes>
          <leafValues>
            -5.0364488363265991e-01 3.7944370508193970e-01</leafValues></_>
        <_>
          <internalNodes>
            0 -1 53 453975176 1067802260 -971088072 -2056388647
            -100707891 -290950946 -573858918 801046137</internalNodes>
          <leafValues>
            -6.6072517633438110e-01 3.0136188864707947e-01</leafValues></_>
        <_>
          <internalNodes>
            0 -1 159 2122311463 107937534 -1091613062 620683133 -9454076
            114294653 -404796332 -1003488305</internalNodes>
          <leafValues>
            -4.3540710210800171e-01 4.5510262250900269e-01</leafValues></_>
        <_>
          <internalNodes>
            0 -1 136 1069023023 -357065857 -2132878464 -396927278
            -1213235789 126926076 -74717116 -453129746</internalNodes>
          <leafValues>
            -4.3966403603553772e-01 4.2991536855697632e-01</leafValues></_>
        <_>
          <internalNodes>
            0 -1 102 -1474675400 571351952 2035446644 -575815599
            649291146 -1467009405 327734145 -571731772</internalNodes>
          <leafValues>
            -5.2725744247436523e-01 3.8994163274765015e-01</leafValues></_>
        <_>
          <internalNodes>
            0 -1 78 1367076845 1875577297 -128755246 -294063063
            -1017653178 927214343 -6816960 -456790124</internalNodes>
          <leafValues>
            -4.9931156635284424e-01 4.0203440189361572e-01</leafValues></_>
        <_>
          <internalNodes>
            0 -1 114 636791815 -1435200649 -99058825 -1193886310
            -266790611 498799273 -744172289 -1241850035</internalNodes>
          <leafValues>
            -4.5807501673698425e-01 4.1277176141738892e-01</leafValues></_>
        <_>
          <internalNodes>
            0 -1 141 768596259 -830843570 -666778848 -2077469474
            1495366752 5058578 1151301233 -973147029</internalNodes>
          <leafValues>
            -5.5073505640029907e-01 3.5538101196289062e-01</leafValues></_>
        <_>
          <internalNodes>
            0 -1 155 -56695961 1297832478 -926170593 38211283 -772856828
            1984914327 839030017 -1038158978</internalNodes>
          <leafValues>
            -4.5204937458038330e-01 4.5161586999893188e-01</leafValues></_>
        <_>
          <internalNodes>
            0 -1 20 -1903840281 1774967687 -62791840 -423604478
            -632218813 1547704507 -140298640 -947995273</internalNodes>
          <leafValues>
            -5.2892923355102539e-01 3.7934416532516479e-01</leafValues></_>
        <_>
          <internalNodes>
            0 -1 110 2045578496 1608056799 1812249957 466944395
            1924282879 413790658 914439309 1731980191</internalNodes>
          <leafValues>
            -7.1799325942993164e-01 2.8645098209381104e-01</leafValues></_>
        <_>
          <internalNodes>
            0 -1 162 -202917097 -1026556979 -1417872607 1257863019
            -151168140 -1613351155 -157334012 -757358917</internalNodes>
          <leafValues>
            -3.8819721341133118e-01 5.5551278591156006e-01</leafValues></_>
        <_>
          <internalNodes>
            0 -1 8 1212393391 -301097918 -259479956 -1541415544
            1772010516 1725673314 -1020406255 -181783585</internalNodes>
          <leafValues>
            -5.3194403648376465e-01 3.8644579052925110e-01</leafValues></_>
        <_>
          <internalNodes>
            0 -1 115 -153154302 -1116011151 -2053873764 177726492
            1138012235 -219465656 -459351714 36369279</internalNodes>
          <leafValues>
            -6.4036190509796143e-01 3.2807314395904541e-01</leafValues></_></weakClassifiers></_>
    <!-- stage 2 -->
    <_>
      <maxWeakCount>19</maxWeakCount>
      <stageThreshold>-4.7406565397977829e-02</stageThreshold>
      <weakClassifiers>
        <_>
          <internalNodes>
            0 -1 94 -537395204 1943991773 -542122019 -537012395
            -1253839106 -1885425557 -203628636 -844303104</internalNodes>
          <leafValues>
            -7.4894219636917114e-01 5.6179776787757874e-02</leafValues></_>
        <_>
          <internalNodes>
            0 -1 87 1551913082 956343448 -1852452975 -581464816
            -83231008 -878075726 134402496 260636933</internalNodes>
          <leafValues>
            -6.3153779506683350e-01 2.1311257779598236e-01</leafValues></_>
        <_>
          <internalNodes>
            0 -1 26 -591922702 -589310054 2021448656 -2110864
            -1333075068 -1446851915 798552832 1206188816</internalNodes>
          <leafValues>
            -6.7585813999176025e-01 2.2227890789508820e-01</leafValues></_>
        <_>
          <internalNodes>
            0 -1 49 44045620 496892341 2098320095 -1654929188 -748361217
            -1091923327 -75239269 -1724944199</internalNodes>
          <leafValues>
            -4.8022699356079102e-01 3.6093220114707947e-01</leafValues></_>
        <_>
          <internalNodes>
            0 -1 146 -69447915 1609034835 -2013165089 64599691
            -2111217663 -1207410661 -1567761812 -520426995</internalNodes>
          <leafValues>
            -4.2944341897964478e-01 4.0083110332489014e-01</leafValues></_>
        <_>
          <internalNodes>
            0 -1 121 -138679528 1352622345 -1970973931 -1645887103
            -743183471 -890762581 423903456 -711126925</internalNodes>
          <leafValues>
            -5.7430291175842285e-01 2.7558583021163940e-01</leafValues></_>
        <_>
          <internalNodes>
            0 -1 85 -1651995525 -600764398 1393344567 1574798836
            -1482583813 -1078886265 -1987540530 -1642374772</internalNodes>
          <leafValues>
            -3.8738867640495300e-01 4.3656653165817261e-01</leafValues></_>
        <_>
          <internalNodes>
            0 -1 105 564139980 1368725584 -1693984901 -1354420071
            718912386 -1146383665 158783720 119341200</internalNodes>
          <leafValues>
            -6.6093164682388306e-01 2.3327991366386414e-01</leafValues></_>
        <_>
          <internalNodes>
            0 -1 153 1978811415 -371246209 -302858505 1920581617
            -96674273 -1494024195 -526729233 -1632960630</internalNodes>
          <leafValues>
            -3.6242076754570007e-01 4.4866737723350525e-01</leafValues></_>
        <_>
          <internalNodes>
            0 -1 18 -698614870 -1081840620 145806864 1436260060
            268994726 -2129321854 -1513910720 218430228</internalNodes>
          <leafValues>
            -6.9555306434631348e-01 2.5088429450988770e-01</leafValues></_>
        <_>
          <internalNodes>
            0 -1 80 571059840 2064994801 120754260 -69967639 680177846
            -264207200 -1837004071 -1619378044</internalNodes>
          <leafValues>
            -4.6769827604293823e-01 3.4590274095535278e-01</leafValues></_>
        <_>
          <internalNodes>
            0 -1 89 511990652 -846654296 945471906 524458197 553890536
            -1968672608 1135338037 1835277</internalNodes>
          <leafValues>
            -6.3336527347564697e-01 2.4807412922382355e-01</leafValues></_>
        <_>
          <internalNodes>
            0 -1 69 -2134884204 403194112 -1475078633 -981024517
            1786820634 -290908031 337942505 210780433</internalNodes>
          <leafValues>
            -6.0244071483612061e-01 2.6479730010032654e-01</leafValues></_>
        <_>
          <internalNodes>
            0 -1 66 -1442208206 -1890995756 -1247506043 835535048
            -1442741608 -1566537294 169572317 -1717947976</internalNodes>
          <leafValues>
            -4.3604430556297302e-01 4.0157374739646912e-01</leafValues></_>
        <_>
          <internalNodes>
            0 -1 134 2128491307 31254524 -406848730 -276398404
            1711142839 1872394230 -271106784 -744505630</internalNodes>
          <leafValues>
            -3.9172828197479248e-01 4.4333443045616150e-01</leafValues></_>
        <_>
          <internalNodes>
            0 -1 37 8958196 899565309 -1023263075 901184184 -1144798735
            -60991341 806050507 189465713</internalNodes>
          <leafValues>
            -6.2040930986404419e-01 2.7717381715774536e-01</leafValues></_>
        <_>
          <internalNodes>
            0 -1 149 -746068217 1364954254 1655009432 151318751
            -892917212 -503273408 -262936384 -1485897853</internalNodes>
          <leafValues>
            -4.2796871066093445e-01 3.9658507704734802e-01</leafValues></_>
        <_>
          <internalNodes>
            0 -1 63 1042819322 -650878544 -773471865 -1781812543
            -1371803651 -1429551360 466249900 527458304</internalNodes>
          <leafValues>
            -5.4292255640029907e-01 3.2396990060806274e-01</leafValues></_>
        <_>
          <internalNodes>
            0 -1 151 -503336563 -569208702 -2006847348 -1672490908
            1207648548 47875023 1138991264 -1200108621</internalNodes>
          <leafValues>
            -4.3843474984169006e-01 4.2432701587677002e-01</leafValues></_></weakClassifiers></_>
    <!-- stage 3 -->
    <_>
      <maxWeakCount>23</maxWeakCount>
      <stageThreshold>-2.7064409852027893e-01</stageThreshold>
      <weakClassifiers>
        <_>
          <internalNodes>
            0 -1 138 -778174716 -33557441 404965401 1833690335
            1341210892 137790467 -1780104210 1422891279</internalNodes>
          <leafValues>
            -6.8147015571594238e-01 -5.3538460284471512e-02</leafValues></_>
        <_>
          <internalNodes>
            0 -1 44 -1224544384 -207648302 -374579356 -41555883
            1869193450 1420773515 -1711855624 -664933253</internalNodes>
          <leafValues>
            -6.8501222133636475e-01 1.3762402534484863e-01</leafValues></_>
        <_>
          <internalNodes>
            0 -1 46 -1609760802 -2129731418 1938133651 1039599217
            83990940 -1980970816 1171922 133926991</internalNodes>
          <leafValues>
            -3.9611694216728210e-01 3.2196304202079773e-01</leafValues></_>
        <_>
          <internalNodes>
            0 -1 79 -151792897 -39838046 -671629327 -549995215
            -251760929 -34750465 1342158029 -1647560281</internalNodes>
          <leafValues>
            -2.2838968038558960e-01 5.6099259853363037e-01</leafValues></_>
        <_>
          <internalNodes>
            0 -1 104 -320219649 -578048520 398327287 1576893657
            -944055586 -1092124686 384031883 -542401121</internalNodes>
          <leafValues>
            -2.0883324742317200e-01 5.9740161895751953e-01</leafValues></_>
        <_>
          <internalNodes>
            0 -1 64 -1433893232 1493714136 447988034 1475832016
            -641648483 -1558023876 798251414 84481249</internalNodes>
          <leafValues>
            -6.0709989070892334e-01 2.1539990603923798e-01</leafValues></_>
        <_>
          <internalNodes>
            0 -1 42 -1903958093 318817262 289920887 -16393836 600374443
            -980025213 1665198567 395001999</internalNodes>
          <leafValues>
            -3.4823918342590332e-01 3.9026424288749695e-01</leafValues></_>
        <_>
          <internalNodes>
            0 -1 152 -421529840 541180522 -1836825690 1820580935
            977562369 1645973808 426606723 23456107</internalNodes>
          <leafValues>
            -4.7107297182083130e-01 3.0340060591697693e-01</leafValues></_>
        <_>
          <internalNodes>
            0 -1 112 2063597343 267382646 -16860443 -680151051
            -1611727441 -1942397666 -185272921 -378552609</internalNodes>
          <leafValues>
            -2.7782630920410156e-01 5.1980829238891602e-01</leafValues></_>
        <_>
          <internalNodes>
            0 -1 163 -88739194 -2058171933 1105186944 -1968847659
            -363144586 738510988 1899384961 885504367</internalNodes>
          <leafValues>
            -4.0914416313171387e-01 3.4848484396934509e-01</leafValues></_>
        <_>
          <internalNodes>
            0 -1 57 -23040456 -588613383 -1157796887 -1112598019
            -1377058858 -5603401 -2028144681 -1683259169</internalNodes>
          <leafValues>
            -3.5392633080482483e-01 3.9172703027725220e-01</leafValues></_>
        <_>
          <internalNodes>
            0 -1 90 647045616 -2096420544 285324693 1966858464 53192842
            -2003006770 -1022860304 -575678000</internalNodes>
          <leafValues>
            -3.9915308356285095e-01 3.5467422008514404e-01</leafValues></_>
        <_>
          <internalNodes>
            0 -1 168 -789926949 -1064041918 1091171584 -825368496
            -1038894590 -528392023 830468228 132117487</internalNodes>
          <leafValues>
            -3.5763388872146606e-01 3.9138796925544739e-01</leafValues></_>
        <_>
          <internalNodes>
            0 -1 103 108715456 -175898472 1904855027 -1644444684
            583738322 271253505 1326410160 -1738569484</internalNodes>
          <leafValues>
            -4.3317788839340210e-01 3.3439335227012634e-01</leafValues></_>
        <_>
          <internalNodes>
            0 -1 62 233317630 -842855424 -2029741307 -577953216
            -1442309378 -1341855 1816458113 -2020162226</internalNodes>
          <leafValues>
            -5.0698542594909668e-01 2.7700796723365784e-01</leafValues></_>
        <_>
          <internalNodes>
            0 -1 116 -1262979672 -753921848 1526766238 -648318544
            -1155655173 -2011088816 2018114110 -1446231616</internalNodes>
          <leafValues>
            -4.3217223882675171e-01 3.5373654961585999e-01</leafValues></_>
        <_>
          <internalNodes>
            0 -1 148 1590798392 1792983185 -1658671073 1916854427
            -644644781 -1459091386 -2012945761 1666210535</internalNodes>
          <leafValues>
            -4.7495728731155396e-01 3.0909416079521179e-01</leafValues></_>
        <_>
          <internalNodes>
            0 -1 117 -1508981912 -1042983882 -784012903 1360348420
            -1010824312 -1577008400 874304526 223590818</internalNodes>
          <leafValues>
            -5.0702875852584839e-01 3.0286860466003418e-01</leafValues></_>
        <_>
          <internalNodes>
            0 -1 27 -2057178190 -837133114 -619360000 -656403760
            -258940511 -920483711 -16141355 -583573036</internalNodes>
          <leafValues>
            -4.7978460788726807e-01 3.2179632782936096e-01</leafValues></_>
        <_>
          <internalNodes>
            0 -1 139 1967911888 1918501702 1073860612 -216444854
            1645209236 268460163 1254661152 24491603</internalNodes>
          <leafValues>
            -5.2829539775848389e-01 2.9655358195304871e-01</leafValues></_>
        <_>
          <internalNodes>
            0 -1 81 -859125282 -1197448712 -2142166979 -170796588
            690801370 -1081112192 1128585608 -1692432085</internalNodes>
          <leafValues>
            -4.3878868222236633e-01 3.6273691058158875e-01</leafValues></_>
        <_>
          <internalNodes>
            0 -1 123 -210082544 -462450023 -1474493543 1270165081
            -1531187927 -796335956 495518633 1241631423</internalNodes>
          <leafValues>
            -5.8286905288696289e-01 2.8549584746360779e-01</leafValues></_>
        <_>
          <internalNodes>
            0 -1 75 -1593801004 -1080302360 -1056663143 -661356415
            -1299731733 -2012673469 -2104924217 -1949204176</internalNodes>
          <leafValues>
            -4.5985814929008484e-01 3.5320159792900085e-01</leafValues></_></weakClassifiers></_>
    <!-- stage 4 -->
    <_>
      <maxWeakCount>24</maxWeakCount>
      <stageThreshold>-3.5526713728904724e-01</stageThreshold>
      <weakClassifiers>
        <_>
          <internalNodes>
            0 -1 158 -1048797 -19991906 -921989526 -65460165 -403839215
            -200486500 -653268735 -235934801</internalNodes>
          <leafValues>
            -5.5591225624084473e-01 5.8380413800477982e-02</leafValues></_>
        <_>
          <internalNodes>
            0 -1 124 -488655600 1269277030 -517627363 -1802721589
            1594714437 -2137752926 1744926752 -842024213</internalNodes>
          <leafValues>
            -6.0943913459777832e-01 1.4153318107128143e-01</leafValues></_>
        <_>
          <internalNodes>
            0 -1 161 -206590206 247979072 -1014512662 -1965960362
            -944770302 569499447 -1258893052 -2115519258</internalNodes>
          <leafValues>
            -4.1070893406867981e-01 2.4941624701023102e-01</leafValues></_>
        <_>
          <internalNodes>
            0 -1 29 8390352 378370589 -1169432226 585486495 249900029
            1420633277 -190158537 149500215</internalNodes>
          <leafValues>
            -6.1923092603683472e-01 2.1111585199832916e-01</leafValues></_>
        <_>
          <internalNodes>
            0 -1 50 -1942160161 -1153306968 -285212861 -1114640751
            -311525398 -1090556151 1171650497 -1886665529</internalNodes>
          <leafValues>
            -3.3102798461914062e-01 3.3881068229675293e-01</leafValues></_>
        <_>
          <internalNodes>
            0 -1 48 1923045150 735612362 -561983309 -54551808 285336387
            -87520860 -1417945248 -948832445</internalNodes>
          <leafValues>
            -3.7757730484008789e-01 3.1329658627510071e-01</leafValues></_>
        <_>
          <internalNodes>
            0 -1 96 -1902057286 -843582320 -2013096455 -59269087
            -1950241694 -1708709887 18538664 -745763376</internalNodes>
          <leafValues>
            -3.7731668353080750e-01 3.1150630116462708e-01</leafValues></_>
        <_>
          <internalNodes>
            0 -1 167 -1007703021 574617531 -805392599 712441592
            -1887457162 2113372022 885769870 -253772582</internalNodes>
          <leafValues>
            -2.9611542820930481e-01 4.4803413748741150e-01</leafValues></_>
        <_>
          <internalNodes>
            0 -1 101 589494520 386687088 -99515719 -1111658064 8518193
            -1977130864 85953018 15859732</internalNodes>
          <leafValues>
            -6.2307077646255493e-01 2.0844735205173492e-01</leafValues></_>
        <_>
          <internalNodes>
            0 -1 132 -178067678 -1538270963 1347615576 -2107932498
            224292929 65635218 706214416 -1311538251</internalNodes>
          <leafValues>
            -4.5486909151077271e-01 2.7769848704338074e-01</leafValues></_>
        <_>
          <internalNodes>
            0 -1 58 490462187 -273814471 -1880096860 -71685136 207467455
            -1897074958 1744566239 1254794383</internalNodes>
          <leafValues>
            -3.2231077551841736e-01 4.0113246440887451e-01</leafValues></_>
        <_>
          <internalNodes>
            0 -1 32 774489486 917115040 478411296 803361940 122923178
            -1518010364 964306 85271824</internalNodes>
          <leafValues>
            -6.3824093341827393e-01 2.1871164441108704e-01</leafValues></_>
        <_>
          <internalNodes>
            0 -1 74 -956450827 -78930080 -856195773 1834350587
            -1112023068 1334508872 739047780 -1674594341</internalNodes>
          <leafValues>
            -3.3828407526016235e-01 3.9272612333297729e-01</leafValues></_>
        <_>
          <internalNodes>
            0 -1 164 -378600614 2007914994 -1501940820 774553087
            -680323764 -1157792132 -419639448 -265383942</internalNodes>
          <leafValues>
            -3.5857418179512024e-01 3.7518993020057678e-01</leafValues></_>
        <_>
          <internalNodes>
            0 -1 166 -87112372 576394287 -2146428501 21455963 1390559304
            -397610415 570473114 539372347</internalNodes>
          <leafValues>
            -4.8495113849639893e-01 2.7693513035774231e-01</leafValues></_>
        <_>
          <internalNodes>
            0 -1 126 1559695412 1982236023 -799408337 -1441739497
            -898542278 2068824081 -654003537 150381894</internalNodes>
          <leafValues>
            -4.6335977315902710e-01 2.9078474640846252e-01</leafValues></_>
        <_>
          <internalNodes>
            0 -1 107 580009376 -446998512 2034693241 -671106312
            -2101234690 -1100447639 1997375889 -1378974528</internalNodes>
          <leafValues>
            -4.2693197727203369e-01 3.1802353262901306e-01</leafValues></_>
        <_>
          <internalNodes>
            0 -1 150 -978847325 1253015295 -6209 -1543505224 1163376497
            -973637891 -1890585004 -2016940033</internalNodes>
          <leafValues>
            -3.4287154674530029e-01 4.3205067515373230e-01</leafValues></_>
        <_>
          <internalNodes>
            0 -1 31 2090314751 1436256760 749694948 -1720238239
            105807341 -1261330713 790468559 -844114769</internalNodes>
          <leafValues>
            -2.8233981132507324e-01 5.2735894918441772e-01</leafValues></_>
        <_>
          <internalNodes>
            0 -1 10 522222887 1110282172 1873756149 -812798106
            -1921228297 -118407425 -328288258 2000502133</internalNodes>
          <leafValues>
            -3.4739288687705994e-01 3.9490532875061035e-01</leafValues></_>
        <_>
          <internalNodes>
            0 -1 142 1167944462 1246489091 1915084864 -1563471082
            -1147967735 -2121719351 -775436320 1617682422</internalNodes>
          <leafValues>
            -5.1094961166381836e-01 2.7979850769042969e-01</leafValues></_>
        <_>
          <internalNodes>
            0 -1 144 -481015800 -1463364619 1153723269 303174857
            -227322304 34144794 -1417053196 1915409067</internalNodes>
          <leafValues>
            -5.8475977182388306e-01 2.3655439913272858e-01</leafValues></_>
        <_>
          <internalNodes>
            0 -1 165 -1971345132 -925923046 42584733 -2134734576
            -1202517744 1686847489 555558576 1266059253</internalNodes>
          <leafValues>
            -5.8943605422973633e-01 2.3355856537818909e-01</leafValues></_>
        <_>
          <internalNodes>
            0 -1 83 1465965658 1233129520 115742656 -1625719019
            -1140269005 -997324480 93377949 -1704013673</internalNodes>
          <leafValues>
            -4.2140033841133118e-01 3.4435075521469116e-01</leafValues></_></weakClassifiers></_>
    <!-- stage 5 -->
    <_>
      <maxWeakCount>25</maxWeakCount>
      <stageThreshold>-3.0739349126815796e-01</stageThreshold>
      <weakClassifiers>
        <_>
          <internalNodes>
            0 -1 108 -1828542026 -606225518 -784311975 -67656624
            -1086682708 -361322357 -1985308482 -809955128</internalNodes>
          <leafValues>
            -4.4731611013412476e-01 2.0085929334163666e-01</leafValues></_>
        <_>
          <internalNodes>
            0 -1 2 134220918 2115040058 1606479974 1266868250 -732590370
            -1688614527 -138178661 785458912</internalNodes>
          <leafValues>
            -5.7060253620147705e-01 1.8503977358341217e-01</leafValues></_>
        <_>
          <internalNodes>
            0 -1 13 35653756 823604365 -1391610616 1384439317 1060312701
            -7255455 -83601387 982526810</internalNodes>
          <leafValues>
            -5.2661812305450439e-01 2.0462948083877563e-01</leafValues></_>
        <_>
          <internalNodes>
            0 -1 61 455775196 -79797360 1065131901 -245273356
            -1392578698 -1124704267 -1615473439 -1079101811</internalNodes>
          <leafValues>
            -2.9582291841506958e-01 3.8459005951881409e-01</leafValues></_>
        <_>
          <internalNodes>
            0 -1 7 747354470 -1433472998 1465370428 -160779064
            -276655355 -425390064 2038464852 -511256699</internalNodes>
          <leafValues>
            -4.8234832286834717e-01 2.3859795928001404e-01</leafValues></_>
        <_>
          <internalNodes>
            0 -1 111 690002912 -589743456 -670437283 -1803961863
            -1969960575 -1537749520 369132187 -643228356</internalNodes>
          <leafValues>
            -4.2509335279464722e-01 2.8016221523284912e-01</leafValues></_>
        <_>
          <internalNodes>
            0 -1 157 -68710904 1075022575 -863500216 571358478
            -381713867 -1702313849 -628482004 -991692213</internalNodes>
          <leafValues>
            -4.0398588776588440e-01 3.0541265010833740e-01</leafValues></_>
        <_>
          <internalNodes>
            0 -1 76 -1458842664 -1781774208 -1828374704 -543717312
            -1528298754 -462934134 -2120941280 1154188635</internalNodes>
          <leafValues>
            -4.1364359855651855e-01 3.1401371955871582e-01</leafValues></_>
        <_>
          <internalNodes>
            0 -1 93 -664266129 -39318030 1068449787 -2632488 -1359285893
            -1108672577 -537387425 -1925610158</internalNodes>
          <leafValues>
            -3.1568312644958496e-01 4.3224954605102539e-01</leafValues></_>
        <_>
          <internalNodes>
            0 -1 88 1536190591 1703519624 -1710071369 -1654270958
            -12172822 -1064959131 422471776 118004315</internalNodes>
          <leafValues>
            -4.1155356168746948e-01 3.3798465132713318e-01</leafValues></_>
        <_>
          <internalNodes>
            0 -1 160 -5247809 -1399914701 -1074861260 -1763705766
            -268534265 240091100 -2015631456 -136057442</internalNodes>
          <leafValues>
            -3.1514719128608704e-01 4.5026069879531860e-01</leafValues></_>
        <_>
          <internalNodes>
            0 -1 55 841711774 -855602980 664766507 -310169151 1930506762
            -307879489 645947232 438654549</internalNodes>
          <leafValues>
            -4.5746263861656189e-01 3.0985161662101746e-01</leafValues></_>
        <_>
          <internalNodes>
            0 -1 154 -115686910 2048603151 -1040103576 2474203
            -607548928 1379958824 1082240372 1127802841</internalNodes>
          <leafValues>
            -5.7466125488281250e-01 2.3662544786930084e-01</leafValues></_>
        <_>
          <internalNodes>
            0 -1 84 -1212284752 -1745419775 -937093835 -36601391
            -1543314406 -2123751414 -1735689810 -1969616728</internalNodes>
          <leafValues>
            -3.8720619678497314e-01 3.5014638304710388e-01</leafValues></_>
        <_>
          <internalNodes>
            0 -1 109 2072130760 -117440365 1484102959 2010485777
            -1416919959 -281870303 -1942376042 -1913124848</internalNodes>
          <leafValues>
            -4.9642500281333923e-01 2.6806774735450745e-01</leafValues></_>
        <_>
          <internalNodes>
            0 -1 82 1019558129 1945463217 1844336627 -138601451
            -1347420481 -1903845400 -1791003169 -1101019690</internalNodes>
          <leafValues>
            -2.7895128726959229e-01 5.0799280405044556e-01</leafValues></_>
        <_>
          <internalNodes>
            0 -1 12 653244926 -2024146072 -1627952208 -840106015
            2128075482 1298620391 1967899552 -59329036</internalNodes>
          <leafValues>
            -3.7171414494514465e-01 3.9720830321311951e-01</leafValues></_>
        <_>
          <internalNodes>
            0 -1 91 -2048965149 -1611758566 235225060 1300073733
            -1187665594 166480046 1657957632 1074622153</internalNodes>
          <leafValues>
            -5.4663997888565063e-01 2.4886877834796906e-01</leafValues></_>
        <_>
          <internalNodes>
            0 -1 54 -1378606884 2017770808 -1929199143 -1693723183
            -2111821352 -1442389421 1009567771 111675644</internalNodes>
          <leafValues>
            -5.3237789869308472e-01 2.8414365649223328e-01</leafValues></_>
        <_>
          <internalNodes>
            0 -1 43 -426886434 806314000 491991 -1985612396 -849370044
            -150962047 -1702505904 -732995978</internalNodes>
          <leafValues>
            -3.9983686804771423e-01 3.6340162158012390e-01</leafValues></_>
        <_>
          <internalNodes>
            0 -1 9 478479055 -1083444365 -16900247 2016517945
            -1402659720 -650117777 1609383675 -1569717730</internalNodes>
          <leafValues>
            -3.6859810352325439e-01 4.0372344851493835e-01</leafValues></_>
        <_>
          <internalNodes>
            0 -1 169 -664433722 -1525087664 67687200 1120026819
            -209249209 1656815747 669688608 -538449153</internalNodes>
          <leafValues>
            -3.7593492865562439e-01 3.9927905797958374e-01</leafValues></_>
        <_>
          <internalNodes>
            0 -1 143 1423125641 -129384430 -1333727626 -1867964143
            443255620 17310280 -1995860466 572377529</internalNodes>
          <leafValues>
            -4.9049097299575806e-01 3.2959052920341492e-01</leafValues></_>
        <_>
          <internalNodes>
            0 -1 65 -952061966 -1000955848 -511594315 -114488320
            -1191145592 -377253220 16794821 101305839</internalNodes>
          <leafValues>
            -5.0443869829177856e-01 2.9875341057777405e-01</leafValues></_>
        <_>
          <internalNodes>
            0 -1 92 173203390 1886915296 457650503 -1774106304 924338305
            -635764214 -73703030 259642658</internalNodes>
          <leafValues>
            -4.7867828607559204e-01 3.2044243812561035e-01</leafValues></_></weakClassifiers></_>
    <!-- stage 6 -->
    <_>
      <maxWeakCount>16</maxWeakCount>
      <stageThreshold>2.4891464412212372e-01</stageThreshold>
      <weakClassifiers>
        <_>
          <internalNodes>
            0 -1 14 136840980 1000602357 1006501623 926872047 1543184373
            -1124753409 -285348482 684720244</internalNodes>
          <leafValues>
            -2.6034063100814819e-01 5.2274835109710693e-01</leafValues></_>
        <_>
          <internalNodes>
            0 -1 40 -671501601 -38932334 -1614926851 2139059941
            1492569331 -1774714899 -830640897 -1735551651</internalNodes>
          <leafValues>
            -1.8385732173919678e-01 7.1113532781600952e-01</leafValues></_>
        <_>
          <internalNodes>
            0 -1 72 -927998045 -2135954000 -37280 2095414448 132955959
            -1897996291 -1260225833 -669018200</internalNodes>
          <leafValues>
            -2.8707125782966614e-01 5.3959131240844727e-01</leafValues></_>
        <_>
          <internalNodes>
            0 -1 60 -1816998474 2142339709 -1627449605 -1677852691
            1872686579 -537157641 -1212490629 -2063625024</internalNodes>
          <leafValues>
            -3.9353930950164795e-01 4.3643769621849060e-01</leafValues></_>
        <_>
          <internalNodes>
            0 -1 34 -783256994 1783709968 1073762705 22075770
            -1048067896 -1442144254 1237594483 233759541</internalNodes>
          <leafValues>
            -4.5181638002395630e-01 3.8753041625022888e-01</leafValues></_>
        <_>
          <internalNodes>
            0 -1 17 120044286 1414652194 -1856946017 555155654
            -1914605474 -1411295091 -770170345 69153185</internalNodes>
          <leafValues>
            -4.3641981482505798e-01 3.9909350872039795e-01</leafValues></_>
        <_>
          <internalNodes>
            0 -1 11 512448522 -325877744 -1795160957 1812009025
            -274647936 -2102362046 -1586805936 -598228269</internalNodes>
          <leafValues>
            -4.4900849461555481e-01 4.0716427564620972e-01</leafValues></_>
        <_>
          <internalNodes>
            0 -1 56 -765421032 -1885068409 1877982975 -1074233923
            1878936701 -142660099 -553775876 -1882506240</internalNodes>
          <leafValues>
            -3.9400026202201843e-01 4.8309504985809326e-01</leafValues></_>
        <_>
          <internalNodes>
            0 -1 15 -1326348660 271139228 1610940802 1108309006
            -33030144 503316504 -1710792693 2055682055</internalNodes>
          <leafValues>
            -5.2490818500518799e-01 3.8466811180114746e-01</leafValues></_>
        <_>
          <internalNodes>
            0 -1 70 313004770 -520054774 17956869 -12302270 1480601902
            1951269056 311726755 -2120200043</internalNodes>
          <leafValues>
            -6.1283630132675171e-01 3.1083723902702332e-01</leafValues></_>
        <_>
          <internalNodes>
            0 -1 1 542642110 292947075 -536328869 -2099998080 687940875
            1074284739 -2104376534 -1357088248</internalNodes>
          <leafValues>
            -5.9623676538467407e-01 3.5971149802207947e-01</leafValues></_>
        <_>
          <internalNodes>
            0 -1 95 1842023359 -1501627146 1329593717 1610012669
            1051655916 -1977451531 -447283886 -759259957</internalNodes>
          <leafValues>
            -3.8213869929313660e-01 5.8809912204742432e-01</leafValues></_>
        <_>
          <internalNodes>
            0 -1 39 344588682 -79428334 -1912401007 483166851
            -1040136186 1627398160 985680604 2085097738</internalNodes>
          <leafValues>
            -4.9542605876922607e-01 4.4405880570411682e-01</leafValues></_>
        <_>
          <internalNodes>
            0 -1 30 451648835 -277397661 -1225130379 1361705895
            -1208531120 -785940684 2088171211 -80681879</internalNodes>
          <leafValues>
            -3.7136644124984741e-01 5.8743900060653687e-01</leafValues></_>
        <_>
          <internalNodes>
            0 -1 24 8668330 421003396 1610664390 1829028400 1913300361
            -1140817536 -889188172 240952515</internalNodes>
          <leafValues>
            -5.5541056394577026e-01 4.1170057654380798e-01</leafValues></_>
        <_>
          <internalNodes>
            0 -1 5 -838863505 -1121030734 1073553391 -51044743
            -1405966618 527794035 1736270308 -405160777</internalNodes>
          <leafValues>
            -3.3560276031494141e-01 6.8993562459945679e-01</leafValues></_></weakClassifiers></_>
    <!-- stage 7 -->
    <_>
      <maxWeakCount>13</maxWeakCount>
      <stageThreshold>4.2376893758773804e-01</stageThreshold>
      <weakClassifiers>
        <_>
          <internalNodes>
            0 -1 68 -2079308738 225498832 -1079050763 215837908
            791551874 2146885371 -1922514956 238043224</internalNodes>
          <leafValues>
            -1.7829456925392151e-01 7.0693069696426392e-01</leafValues></_>
        <_>
          <internalNodes>
            0 -1 67 -1598366800 -384288776 -1681938525 1885498620
            929920022 -1682016778 -299908003 -565455824</internalNodes>
          <leafValues>
            -3.0018651485443115e-01 5.7970148324966431e-01</leafValues></_>
        <_>
          <internalNodes>
            0 -1 38 296042533 2065304825 1744670369 1287214659 -80409987
            914136988 -1327710675 -1465531976</internalNodes>
          <leafValues>
            -3.3205658197402954e-01 6.1998248100280762e-01</leafValues></_>
        <_>
          <internalNodes>
            0 -1 86 360943825 -775393752 213906545 -704784695 1055816428
            -7479386 106782564 1562249070</internalNodes>
          <leafValues>
            -3.6995604634284973e-01 6.1059796810150146e-01</leafValues></_>
        <_>
          <internalNodes>
            0 -1 45 263630575 394821284 535701347 -543079059 -1610678816
            -1886586895 1560718303 -1657580261</internalNodes>
          <leafValues>
            -3.4608697891235352e-01 6.4623504877090454e-01</leafValues></_>
        <_>
          <internalNodes>
            0 -1 19 1587967975 1151265446 -923538272 362479342
            1996430645 -144746634 -168403103 738438523</internalNodes>
          <leafValues>
            -4.6601808071136475e-01 5.2028268575668335e-01</leafValues></_>
        <_>
          <internalNodes>
            0 -1 28 -596573787 -660359192 -285557381 -126396547
            1849398316 1266580863 977198974 -438643133</internalNodes>
          <leafValues>
            -3.4451726078987122e-01 7.1017950773239136e-01</leafValues></_>
        <_>
          <internalNodes>
            0 -1 135 1368393237 1884291590 1074823251 -468582326
            -1849686006 -671088640 436734016 303575702</internalNodes>
          <leafValues>
            -5.8136832714080811e-01 4.4650191068649292e-01</leafValues></_>
        <_>
          <internalNodes>
            0 -1 3 -1054337512 2098399565 1141934414 620888192 151122061
            134219528 -1843150621 1554392212</internalNodes>
          <leafValues>
            -5.6198668479919434e-01 5.2491289377212524e-01</leafValues></_>
        <_>
          <internalNodes>
            0 -1 33 -1154898567 2125114711 -1073746060 1412218476
            -9062644 -1778495491 -1174779560 -905477070</internalNodes>
          <leafValues>
            -4.1481158137321472e-01 6.6252356767654419e-01</leafValues></_>
        <_>
          <internalNodes>
            0 -1 118 405941867 -509061 1073003516 -2130761987 1073683740
            2004655615 947847005 -929795235</internalNodes>
          <leafValues>
            -4.7853079438209534e-01 5.5738568305969238e-01</leafValues></_>
        <_>
          <internalNodes>
            0 -1 106 -537940044 -311500950 -285278575 -676677642
            -1207992923 212827991 1434441453 1291704311</internalNodes>
          <leafValues>
            -4.9544411897659302e-01 5.6014388799667358e-01</leafValues></_>
        <_>
          <internalNodes>
            0 -1 129 -478557789 -1498681670 649849300 -1426927626
            -578884268 1113522130 -683966516 -2115514202</internalNodes>
          <leafValues>
            -4.7433695197105408e-01 6.3738530874252319e-01</leafValues></_></weakClassifiers></_>
    <!-- stage 8 -->
    <_>
      <maxWeakCount>11</maxWeakCount>
      <stageThreshold>5.1683038473129272e-01</stageThreshold>
      <weakClassifiers>
        <_>
          <internalNodes>
            0 -1 128 1661919236 618147594 -1611204480 10394216 611206404
            80772180 99884884 5562756</internalNodes>
          <leafValues>
            -3.8983049988746643e-01 7.2490704059600830e-01</leafValues></_>
        <_>
          <internalNodes>
            0 -1 6 10489441 -1167950748 1073725348 1655027428 1173858403
            -1904378060 -1904970432 -312683440</internalNodes>
          <leafValues>
            -3.1710806488990784e-01 6.4494085311889648e-01</leafValues></_>
        <_>
          <internalNodes>
            0 -1 52 429929104 1034231152 32923092 267773417 397929802
            1015969514 -784046761 -1772239395</internalNodes>
          <leafValues>
            -4.2146018147468567e-01 5.6592935323715210e-01</leafValues></_>
        <_>
          <internalNodes>
            0 -1 23 1018865047 297919400 -1292373213 -1983583344
            2138374136 1324094452 399900872 -1194457897</internalNodes>
          <leafValues>
            -3.5528868436813354e-01 7.0758694410324097e-01</leafValues></_>
        <_>
          <internalNodes>
            0 -1 119 -1208123446 -1494564874 -35207291 1550296749
            1979557617 376863853 1182104833 -613233237</internalNodes>
          <leafValues>
            -4.1934204101562500e-01 6.4136159420013428e-01</leafValues></_>
        <_>
          <internalNodes>
            0 -1 36 1046481923 -2021657107 251538038 605704126
            -332587908 -1281722498 1819740958 -2015322415</internalNodes>
          <leafValues>
            -5.0143605470657349e-01 5.6796807050704956e-01</leafValues></_>
        <_>
          <internalNodes>
            0 -1 145 -419496081 -1160479777 -272695692 170811255
            1867998786 -1212907681 -558519927 -1200554114</internalNodes>
          <leafValues>
            -3.7077730894088745e-01 7.5762993097305298e-01</leafValues></_>
        <_>
          <internalNodes>
            0 -1 71 1503860336 -1480867856 1073651445 -71737604
            515893984 -4751937 -1166770696 -781372175</internalNodes>
          <leafValues>
            -4.4619455933570862e-01 6.4981460571289062e-01</leafValues></_>
        <_>
          <internalNodes>
            0 -1 21 553990869 -1876950976 33652737 -1877934077
            1112605576 -937942911 1354760472 -760920052</internalNodes>
          <leafValues>
            -4.6955654025077820e-01 6.2664836645126343e-01</leafValues></_>
        <_>
          <internalNodes>
            0 -1 97 -902910288 1864751088 1056959445 -538185995
            1065269109 -67109028 402535863 -857602596</internalNodes>
          <leafValues>
            -4.6640098094940186e-01 6.5987473726272583e-01</leafValues></_>
        <_>
          <internalNodes>
            0 -1 127 1136660499 538525707 -134180862 1241538689 6422629
            42729609 -938438576 -1576498032</internalNodes>
          <leafValues>
            -5.8709901571273804e-01 5.4064512252807617e-01</leafValues></_></weakClassifiers></_>
    <!-- stage 9 -->
    <_>
      <maxWeakCount>11</maxWeakCount>
      <stageThreshold>6.0777521133422852e-01</stageThreshold>
      <weakClassifiers>
        <_>
          <internalNodes>
            0 -1 25 -1095975966 661323762 -160 380698404 -1376862432
            -1342636188 -1887570828 88110852</internalNodes>
          <leafValues>
            -2.9133859276771545e-01 7.7842563390731812e-01</leafValues></_>
        <_>
          <internalNodes>
            0 -1 137 313743914 -2103223246 -1426108314 180545705
            77386409 139376055 1140790864 1358150786</internalNodes>
          <leafValues>
            -3.5086724162101746e-01 6.2589919567108154e-01</leafValues></_>
        <_>
          <internalNodes>
            0 -1 59 1160974536 -13749150 582895291 1798639332
            -2005010533 -1673947522 1244729563 -1664996056</internalNodes>
          <leafValues>
            -3.6189934611320496e-01 7.1586096286773682e-01</leafValues></_>
        <_>
          <internalNodes>
            0 -1 16 2116331082 927526628 787361772 -1603572248
            -1993263900 -1242054828 -303589595 1549978370</internalNodes>
          <leafValues>
            -4.4148382544517517e-01 6.2934052944183350e-01</leafValues></_>
        <_>
          <internalNodes>
            0 -1 51 -30704071 -628402118 -839057526 1259748469 793765375
            -135659594 -2028716325 -2049992353</internalNodes>
          <leafValues>
            -3.8401991128921509e-01 8.1603062152862549e-01</leafValues></_>
        <_>
          <internalNodes>
            0 -1 47 -332166614 -607789127 2008350501 -1647403532
            1316748140 -1976385548 1212560740 -1736792762</internalNodes>
          <leafValues>
            -4.6720898151397705e-01 6.3934260606765747e-01</leafValues></_>
        <_>
          <internalNodes>
            0 -1 147 -1058242932 990576364 804568805 -1502954002
            -1624873037 787287653 1153283425 -979155887</internalNodes>
          <leafValues>
            -4.9197933077812195e-01 6.2999218702316284e-01</leafValues></_>
        <_>
          <internalNodes>
            0 -1 77 -240541040 -827414240 -41949252 -873660828
            -865091700 669400500 -202951 -1879093674</internalNodes>
          <leafValues>
            -4.0961000323295593e-01 7.5309741497039795e-01</leafValues></_>
        <_>
          <internalNodes>
            0 -1 122 -573888336 -1625015378 671088563 657614512
            -1912608979 -1363214977 66377036 -2022361841</internalNodes>
          <leafValues>
            -4.8988196253776550e-01 6.5482646226882935e-01</leafValues></_>
        <_>
          <internalNodes>
            0 -1 4 76729606 -904593390 37818432 872461848 67190932
            -2088239100 -1474281462 -1876623198</internalNodes>
          <leafValues>
            -5.8559870719909668e-01 5.7776284217834473e-01</leafValues></_>
        <_>
          <internalNodes>
            0 -1 35 -1729986959 -819515526 -25724938 -361995140
            116664176 1996455399 1969205112 -918489757</internalNodes>
          <leafValues>
            -4.7221115231513977e-01 7.4045050144195557e-01</leafValues></_></weakClassifiers></_></stages>
  <features>
    <_>
      <rect>
        0 1 14 10</rect></_>
    <_>
      <rect>
        0 4 4 6</rect></_>
    <_>
      <rect>
        0 4 5 9</rect></_>
    <_>
      <rect>
        0 5 4 4</rect></_>
    <_>
      <rect>
        0 7 5 4</rect></_>
    <_>
      <rect>
        0 19 3 2</rect></_>
    <_>
      <rect>
        0 20 3 2</rect></_>
    <_>
      <rect>
        0 23 8 3</rect></_>
    <_>
      <rect>
        0 24 5 1</rect></_>
    <_>
      <rect>
        1 2 4 2</rect></_>
    <_>
      <rect>
        1 9 7 3</rect></_>
    <_>
      <rect>
        1 27 2 1</rect></_>
    <_>
      <rect>
        1 28 2 1</rect></_>
    <_>
      <rect>
        2 0 9 5</rect></_>
    <_>
      <rect>
        2 4 7 6</rect></_>
    <_>
      <rect>
        2 9 3 1</rect></_>
    <_>
      <rect>
        2 14 2 2</rect></_>
    <_>
      <rect>
        2 16 6 3</rect></_>
    <_>
      <rect>
        2 17 13 5</rect></_>
    <_>
      <rect>
        2 24 5 2</rect></_>
    <_>
      <rect>
        2 29 4 1</rect></_>
    <_>
      <rect>
        3 1 2 4</rect></_>
    <_>
      <rect>
        4 0 12 6</rect></_>
    <_>
      <rect>
        4 14 7 4</rect></_>
    <_>
      <rect>
        5 13 6 3</rect></_>
    <_>
      <rect>
        5 14 11 6</rect></_>
    <_>
      <rect>
        5 16 13 5</rect></_>
    <_>
      <rect>
        5 23 7 3</rect></_>
    <_>
      <rect>
        6 0 3 2</rect></_>
    <_>
      <rect>
        6 0 4 5</rect></_>
    <_>
      <rect>
        6 1 2 1</rect></_>
    <_>
      <rect>
        6 16 4 3</rect></_>
    <_>
      <rect>
        6 18 5 3</rect></_>
    <_>
      <rect>
        6 23 1 1</rect></_>
    <_>
      <rect>
        7 15 7 3</rect></_>
    <_>
      <rect>
        8 9 5 2</rect></_>
    <_>
      <rect>
        9 1 3 2</rect></_>
    <_>
      <rect>
        9 5 4 4</rect></_>
    <_>
      <rect>
        10 0 3 2</rect></_>
    <_>
      <rect>
        10 4 3 2</rect></_>
    <_>
      <rect>
        10 6 9 3</rect></_>
    <_>
      <rect>
        11 6 11 8</rect></_>
    <_>
      <rect>
        11 17 4 3</rect></_>
    <_>
      <rect>
        11 23 2 2</rect></_>
    <_>
      <rect>
        12 0 11 9</rect></_>
    <_>
      <rect>
        12 14 3 2</rect></_>
    <_>
      <rect>
        12 15 5 2</rect></_>
    <_>
      <rect>
        12 16 5 4</rect></_>
    <_>
      <rect>
        12 20 11 4</rect></_>
    <_>
      <rect>
        13 0 6 5</rect></_>
    <_>
      <rect>
        13 10 8 4</rect></_>
    <_>
      <rect>
        13 11 5 3</rect></_>
    <_>
      <rect>
        13 13 4 2</rect></_>
    <_>
      <rect>
        14 1 10 6</rect></_>
    <_>
      <rect>
        14 5 2 2</rect></_>
    <_>
      <rect>
        14 7 8 3</rect></_>
    <_>
      <rect>
        14 8 2 2</rect></_>
    <_>
      <rect>
        14 11 3 3</rect></_>
    <_>
      <rect>
        14 18 3 2</rect></_>
    <_>
      <rect>
        15 10 2 1</rect></_>
    <_>
      <rect>
        15 11 2 2</rect></_>
    <_>
      <rect>
        15 12 1 1</rect></_>
    <_>
      <rect>
        16 7 8 4</rect></_>
    <_>
      <rect>
        16 8 3 2</rect></_>
    <_>
      <rect>
        16 10 4 3</rect></_>
    <_>
      <rect>
        16 14 4 2</rect></_>
    <_>
      <rect>
        16 19 1 1</rect></_>
    <_>
      <rect>
        16 21 1 1</rect></_>
    <_>
      <rect>
        17 8 4 4</rect></_>
    <_>
      <rect>
        17 8 5 2</rect></_>
    <_>
      <rect>
        17 8 8 4</rect></_>
    <_>
      <rect>
        17 12 1 1</rect></_>
    <_>
      <rect>
        17 25 1 1</rect></_>
    <_>
      <rect>
        18 0 9 8</rect></_>
    <_>
      <rect>
        18 12 6 3</rect></_>
    <_>
      <rect>
        18 16 1 1</rect></_>
    <_>
      <rect>
        18 16 3 2</rect></_>
    <_>
      <rect>
        18 25 1 1</rect></_>
    <_>
      <rect>
        18 25 6 2</rect></_>
    <_>
      <rect>
        19 7 5 2</rect></_>
    <_>
      <rect>
        19 12 1 1</rect></_>
    <_>
      <rect>
        19 12 5 3</rect></_>
    <_>
      <rect>
        19 14 3 2</rect></_>
    <_>
      <rect>
        19 16 4 2</rect></_>
    <_>
      <rect>
        20 7 1 1</rect></_>
    <_>
      <rect>
        20 8 4 3</rect></_>
    <_>
      <rect>
        20 10 4 2</rect></_>
    <_>
      <rect>
        20 10 5 3</rect></_>
    <_>
      <rect>
        20 11 5 3</rect></_>
    <_>
      <rect>
        20 14 5 2</rect></_>
    <_>
      <rect>
        20 20 1 1</rect></_>
    <_>
      <rect>
        20 22 7 3</rect></_>
    <_>
      <rect>
        21 5 5 4</rect></_>
    <_>
      <rect>
        21 6 5 3</rect></_>
    <_>
      <rect>
        21 8 8 8</rect></_>
    <_>
      <rect>
        21 12 5 3</rect></_>
    <_>
      <rect>
        21 14 1 1</rect></_>
    <_>
      <rect>
        21 19 1 1</rect></_>
    <_>
      <rect>
        22 10 6 4</rect></_>
    <_>
      <rect>
        23 0 7 3</rect></_>
    <_>
      <rect>
        23 1 2 4</rect></_>
    <_>
      <rect>
        23 12 2 2</rect></_>
    <_>
      <rect>
        23 18 1 1</rect></_>
    <_>
      <rect>
        23 19 1 1</rect></_>
    <_>
      <rect>
        24 9 4 3</rect></_>
    <_>
      <rect>
        24 11 2 3</rect></_>
    <_>
      <rect>
        24 13 3 1</rect></_>
    <_>
      <rect>
        24 15 1 1</rect></_>
    <_>
      <rect>
        25 10 1 1</rect></_>
    <_>
      <rect>
        25 13 2 2</rect></_>
    <_>
      <rect>
        26 0 6 6</rect></_>
    <_>
      <rect>
        26 11 2 2</rect></_>
    <_>
      <rect>
        26 16 4 2</rect></_>
    <_>
      <rect>
        27 0 6 10</rect></_>
    <_>
      <rect>
        27 1 4 1</rect></_>
    <_>
      <rect>
        27 1 6 2</rect></_>
    <_>
      <rect>
        27 8 1 1</rect></_>
    <_>
      <rect>
        27 8 5 3</rect></_>
    <_>
      <rect>
        28 2 2 2</rect></_>
    <_>
      <rect>
        28 23 2 1</rect></_>
    <_>
      <rect>
        29 1 5 4</rect></_>
    <_>
      <rect>
        29 3 5 6</rect></_>
    <_>
      <rect>
        29 7 3 2</rect></_>
    <_>
      <rect>
        30 0 5 4</rect></_>
    <_>
      <rect>
        30 0 5 6</rect></_>
    <_>
      <rect>
        30 5 2 2</rect></_>
    <_>
      <rect>
        31 0 3 2</rect></_>
    <_>
      <rect>
        32 7 2 1</rect></_>
    <_>
      <rect>
        32 20 3 2</rect></_>
    <_>
      <rect>
        32 26 3 2</rect></_>
    <_>
      <rect>
        33 0 4 5</rect></_>
    <_>
      <rect>
        33 0 4 9</rect></_>
    <_>
      <rect>
        33 18 4 4</rect></_>
    <_>
      <rect>
        34 4 2 2</rect></_>
    <_>
      <rect>
        34 16 3 2</rect></_>
    <_>
      <rect>
        35 0 1 1</rect></_>
    <_>
      <rect>
        35 21 3 1</rect></_>
    <_>
      <rect>
        35 26 2 2</rect></_>
    <_>
      <rect>
        36 0 3 5</rect></_>
    <_>
      <rect>
        36 8 3 8</rect></_>
    <_>
      <rect>
        36 9 3 1</rect></_>
    <_>
      <rect>
        36 16 2 1</rect></_>
    <_>
      <rect>
        36 22 3 2</rect></_>
    <_>
      <rect>
        37 0 2 1</rect></_>
    <_>
      <rect>
        37 2 2 1</rect></_>
    <_>
      <rect>
        37 3 2 2</rect></_>
    <_>
      <rect>
        37 4 2 2</rect></_>
    <_>
      <rect>
        37 22 2 2</rect></_>
    <_>
      <rect>
        38 0 2 2</rect></_>
    <_>
      <rect>
        38 7 2 2</rect></_>
    <_>
      <rect>
        38 13 2 2</rect></_>
    <_>
      <rect>
        38 15 2 3</rect></_>
    <_>
      <rect>
        39 1 2 7</rect></_>
    <_>
      <rect>
        39 2 1 2</rect></_>
    <_>
      <rect>
        39 3 2 1</rect></_>
    <_>
      <rect>
        39 3 2 2</rect></_>
    <_>
      <rect>
        39 6 2 1</rect></_>
    <_>
      <rect>
        39 8 1 1</rect></_>
    <_>
      <rect>
        39 10 2 2</rect></_>
    <_>
      <rect>
        39 12 2 2</rect></_>
    <_>
      <rect>
        39 14 1 1</rect></_>
    <_>
      <rect>
        39 15 2 2</rect></_>
    <_>
      <rect>
        39 16 2 2</rect></_>
    <_>
      <rect>
        39 21 2 2</rect></_>
    <_>
      <rect>
        40 5 1 2</rect></_>
    <_>
      <rect>
        40 8 1 2</rect></_>
    <_>
      <rect>
        41 3 1 1</rect></_>
    <_>
      <rect>
        41 7 1 2</rect></_>
    <_>
      <rect>
        41 18 1 1</rect></_>
    <_>
      <rect>
        42 15 1 1</rect></_></features></cascade>
</opencv_storage>
